<?xml version="1.0"?>
<opencv_storage>
<cascade>
  <stageType>BOOST</stageType>
  <featureType>HAAR</featureType>
  <height>24</height>
  <width>24</width>
  <stageParams>
    <boostType>GAB</boostType>
    <minHitRate>9.9500000476837158e-01</minHitRate>
    <maxFalseAlarm>2.0000000298023224e-01</maxFalseAlarm>
    <weightTrimRate>9.4999999999999996e-01</weightTrimRate>
    <maxDepth>1</maxDepth>
    <maxWeakCount>100</maxWeakCount></stageParams>
  <featureParams>
    <maxCatCount>0</maxCatCount>
    <featSize>1</featSize>
    <mode>BASIC</mode></featureParams>
  <stageNum>6</stageNum>
  <stages>
    <!-- stage 0 -->
    <_>
      <maxWeakCount>2</maxWeakCount>
      <stageThreshold>-4.1589841246604919e-02</stageThreshold>
      <weakClassifiers>
        <_>
          <internalNodes>
            0 -1 23 -2.1661657840013504e-02</internalNodes>
          <leafValues>
            9.2860710620880127e-01 -9.6092927455902100e-01</leafValues></_>
        <_>
          <internalNodes>
            0 -1 32 -5.0550214946269989e-02</internalNodes>
          <leafValues>
            9.1933941841125488e-01 -9.5391470193862915e-01</leafValues></_></weakClassifiers></_>
    <!-- stage 1 -->
    <_>
      <maxWeakCount>4</maxWeakCount>
      <stageThreshold>-6.3134306669235229e-01</stageThreshold>
      <weakClassifiers>
        <_>
          <internalNodes>
            0 -1 7 -9.8460987210273743e-03</internalNodes>
          <leafValues>
            9.0552818775177002e-01 -7.7625793218612671e-01</leafValues></_>
        <_>
          <internalNodes>
            0 -1 37 2.0575897768139839e-02</internalNodes>
          <leafValues>
            -6.3927614688873291e-01 8.0388087034225464e-01</leafValues></_>
        <_>
          <internalNodes>
            0 -1 29 8.7675880640745163e-03</internalNodes>
          <leafValues>
            -3.9340084791183472e-01 9.1747260093688965e-01</leafValues></_>
        <_>
          <internalNodes>
            0 -1 4 -5.0019077956676483e-02</internalNodes>
          <leafValues>
            9.0628504753112793e-01 -5.0419420003890991e-01</leafValues></_></weakClassifiers></_>
    <!-- stage 2 -->
    <_>
      <maxWeakCount>8</maxWeakCount>
      <stageThreshold>-1.1562015861272812e-01</stageThreshold>
      <weakClassifiers>
        <_>
          <internalNodes>
            0 -1 28 -9.4343438744544983e-02</internalNodes>
          <leafValues>
            8.1808650493621826e-01 -5.8561152219772339e-01</leafValues></_>
        <_>
          <internalNodes>
            0 -1 10 -3.6736652255058289e-02</internalNodes>
          <leafValues>
            5.5815601348876953e-01 -8.4615182876586914e-01</leafValues></_>
        <_>
          <internalNodes>
            0 -1 25 2.6469044387340546e-02</internalNodes>
          <leafValues>
            -5.9272158145904541e-01 7.3689985275268555e-01</leafValues></_>
        <_>
          <internalNodes>
            0 -1 21 -4.6604797244071960e-02</internalNodes>
          <leafValues>
            5.8369171619415283e-01 -5.7667613029479980e-01</leafValues></_>
        <_>
          <internalNodes>
            0 -1 15 -3.5071641206741333e-02</internalNodes>
          <leafValues>
            6.3918274641036987e-01 -4.9272310733795166e-01</leafValues></_>
        <_>
          <internalNodes>
            0 -1 19 -1.0190995782613754e-01</internalNodes>
          <leafValues>
            5.4047602415084839e-01 -5.5874550342559814e-01</leafValues></_>
        <_>
          <internalNodes>
            0 -1 0 5.4078042507171631e-02</internalNodes>
          <leafValues>
            3.4639915823936462e-01 -9.4882297515869141e-01</leafValues></_>
        <_>
          <internalNodes>
            0 -1 24 1.2809857726097107e-02</internalNodes>
          <leafValues>
            -4.4411587715148926e-01 7.2908306121826172e-01</leafValues></_></weakClassifiers></_>
    <!-- stage 3 -->
    <_>
      <maxWeakCount>8</maxWeakCount>
      <stageThreshold>-5.6114161014556885e-01</stageThreshold>
      <weakClassifiers>
        <_>
          <internalNodes>
            0 -1 16 -1.4070424437522888e-01</internalNodes>
          <leafValues>
            5.5277496576309204e-01 -8.8783067464828491e-01</leafValues></_>
        <_>
          <internalNodes>
            0 -1 18 -1.1695576831698418e-02</internalNodes>
          <leafValues>
            6.3022255897521973e-01 -6.0398346185684204e-01</leafValues></_>
        <_>
          <internalNodes>
            0 -1 12 5.9988684952259064e-02</internalNodes>
          <leafValues>
            -5.8630061149597168e-01 6.0510295629501343e-01</leafValues></_>
        <_>
          <internalNodes>
            0 -1 30 -1.9886955618858337e-02</internalNodes>
          <leafValues>
            8.9903879165649414e-01 -3.2244440913200378e-01</leafValues></_>
        <_>
          <internalNodes>
            0 -1 20 -3.2712114625610411e-04</internalNodes>
          <leafValues>
            -6.8090277910232544e-01 4.4702547788619995e-01</leafValues></_>
        <_>
          <internalNodes>
            0 -1 9 -5.5256066843867302e-04</internalNodes>
          <leafValues>
            -8.3141064643859863e-01 2.3954389989376068e-01</leafValues></_>
        <_>
          <internalNodes>
            0 -1 35 6.2813493423163891e-04</internalNodes>
          <leafValues>
            2.5137835741043091e-01 -7.5123071670532227e-01</leafValues></_>
        <_>
          <internalNodes>
            0 -1 22 -2.1859933622181416e-04</internalNodes>
          <leafValues>
            -8.3658248186111450e-01 2.4946914613246918e-01</leafValues></_></weakClassifiers></_>
    <!-- stage 4 -->
    <_>
      <maxWeakCount>10</maxWeakCount>
      <stageThreshold>-3.3655750751495361e-01</stageThreshold>
      <weakClassifiers>
        <_>
          <internalNodes>
            0 -1 38 2.6090466417372227e-03</internalNodes>
          <leafValues>
            -8.2459485530853271e-01 5.6998556852340698e-01</leafValues></_>
        <_>
          <internalNodes>
            0 -1 13 3.9285302045755088e-04</internalNodes>
          <leafValues>
            3.0792090296745300e-01 -9.2428147792816162e-01</leafValues></_>
        <_>
          <internalNodes>
            0 -1 26 -7.9190351068973541e-02</internalNodes>
          <leafValues>
            6.7198681831359863e-01 -4.4224247336387634e-01</leafValues></_>
        <_>
          <internalNodes>
            0 -1 6 -5.7359103811904788e-04</internalNodes>
          <leafValues>
            -8.1459230184555054e-01 3.0943757295608521e-01</leafValues></_>
        <_>
          <internalNodes>
            0 -1 34 -7.1858480572700500e-02</internalNodes>
          <leafValues>
            6.3853269815444946e-01 -4.2587429285049438e-01</leafValues></_>
        <_>
          <internalNodes>
            0 -1 33 6.3646629452705383e-02</internalNodes>
          <leafValues>
            -4.0143102407455444e-01 6.7456519603729248e-01</leafValues></_>
        <_>
          <internalNodes>
            0 -1 31 2.9996785451658070e-04</internalNodes>
          <leafValues>
            4.0388646721839905e-01 -8.2461112737655640e-01</leafValues></_>
        <_>
          <internalNodes>
            0 -1 40 2.9951971373520792e-04</internalNodes>
          <leafValues>
            2.4884492158889771e-01 -7.5494593381881714e-01</leafValues></_>
        <_>
          <internalNodes>
            0 -1 5 -1.9870226969942451e-04</internalNodes>
          <leafValues>
            -8.2476907968521118e-01 2.6581594347953796e-01</leafValues></_>
        <_>
          <internalNodes>
            0 -1 39 4.9841322470456362e-04</internalNodes>
          <leafValues>
            2.2167934477329254e-01 -8.4339362382888794e-01</leafValues></_></weakClassifiers></_>
    <!-- stage 5 -->
    <_>
      <maxWeakCount>9</maxWeakCount>
      <stageThreshold>-5.2456861734390259e-01</stageThreshold>
      <weakClassifiers>
        <_>
          <internalNodes>
            0 -1 1 -1.1041699908673763e-03</internalNodes>
          <leafValues>
            -9.2174911499023438e-01 5.3687137365341187e-01</leafValues></_>
        <_>
          <internalNodes>
            0 -1 27 -7.9438656568527222e-02</internalNodes>
          <leafValues>
            7.2679722309112549e-01 -4.2853862047195435e-01</leafValues></_>
        <_>
          <internalNodes>
            0 -1 17 7.1204565465450287e-03</internalNodes>
          <leafValues>
            -4.3395331501960754e-01 5.4532521963119507e-01</leafValues></_>
        <_>
          <internalNodes>
            0 -1 8 1.6410527750849724e-02</internalNodes>
          <leafValues>
            -5.3280985355377197e-01 5.1816380023956299e-01</leafValues></_>
        <_>
          <internalNodes>
            0 -1 14 -7.2153628570958972e-04</internalNodes>
          <leafValues>
            -6.6710084676742554e-01 3.4593904018402100e-01</leafValues></_>
        <_>
          <internalNodes>
            0 -1 2 1.4979024417698383e-03</internalNodes>
          <leafValues>
            2.1383997797966003e-01 -9.8968178033828735e-01</leafValues></_>
        <_>
          <internalNodes>
            0 -1 36 3.6200378090143204e-02</internalNodes>
          <leafValues>
            -4.9959209561347961e-01 3.8609522581100464e-01</leafValues></_>
        <_>
          <internalNodes>
            0 -1 11 1.1362949153408408e-03</internalNodes>
          <leafValues>
            2.2734117507934570e-01 -8.4702795743942261e-01</leafValues></_>
        <_>
          <internalNodes>
            0 -1 3 1.1358366464264691e-04</internalNodes>
          <leafValues>
            1.9708177447319031e-01 -8.8391762971878052e-01</leafValues></_></weakClassifiers></_></stages>
  <features>
    <_>
      <rects>
        <_>
          0 0 5 24 -1.</_>
        <_>
          0 12 5 12 2.</_></rects>
      <tilted>0</tilted></_>
    <_>
      <rects>
        <_>
          0 1 9 2 -1.</_>
        <_>
          3 1 3 2 3.</_></rects>
      <tilted>0</tilted></_>
    <_>
      <rects>
        <_>
          0 1 8 8 -1.</_>
        <_>
          0 1 4 4 2.</_>
        <_>
          4 5 4 4 2.</_></rects>
      <tilted>0</tilted></_>
    <_>
      <rects>
        <_>
          0 3 1 3 -1.</_>
        <_>
          0 4 1 1 3.</_></rects>
      <tilted>0</tilted></_>
    <_>
      <rects>
        <_>
          0 5 18 10 -1.</_>
        <_>
          6 5 6 10 3.</_></rects>
      <tilted>0</tilted></_>
    <_>
      <rects>
        <_>
          0 6 6 15 -1.</_>
        <_>
          2 6 2 15 3.</_></rects>
      <tilted>0</tilted></_>
    <_>
      <rects>
        <_>
          0 12 3 7 -1.</_>
        <_>
          1 12 1 7 3.</_></rects>
      <tilted>0</tilted></_>
    <_>
      <rects>
        <_>
          0 16 14 1 -1.</_>
        <_>
          7 16 7 1 2.</_></rects>
      <tilted>0</tilted></_>
    <_>
      <rects>
        <_>
          0 18 12 6 -1.</_>
        <_>
          0 18 6 3 2.</_>
        <_>
          6 21 6 3 2.</_></rects>
      <tilted>0</tilted></_>
    <_>
      <rects>
        <_>
          1 12 3 10 -1.</_>
        <_>
          2 12 1 10 3.</_></rects>
      <tilted>0</tilted></_>
    <_>
      <rects>
        <_>
          2 1 17 12 -1.</_>
        <_>
          2 7 17 6 2.</_></rects>
      <tilted>0</tilted></_>
    <_>
      <rects>
        <_>
          2 2 2 8 -1.</_>
        <_>
          3 2 1 8 2.</_></rects>
      <tilted>0</tilted></_>
    <_>
      <rects>
        <_>
          2 15 17 8 -1.</_>
        <_>
          2 19 17 4 2.</_></rects>
      <tilted>0</tilted></_>
    <_>
      <rects>
        <_>
          3 4 7 2 -1.</_>
        <_>
          3 5 7 1 2.</_></rects>
      <tilted>0</tilted></_>
    <_>
      <rects>
        <_>
          3 11 2 9 -1.</_>
        <_>
          3 14 2 3 3.</_></rects>
      <tilted>0</tilted></_>
    <_>
      <rects>
        <_>
          3 16 12 3 -1.</_>
        <_>
          9 16 6 3 2.</_></rects>
      <tilted>0</tilted></_>
    <_>
      <rects>
        <_>
          4 0 15 18 -1.</_>
        <_>
          4 9 15 9 2.</_></rects>
      <tilted>0</tilted></_>
    <_>
      <rects>
        <_>
          5 9 9 15 -1.</_>
        <_>
          8 9 3 15 3.</_></rects>
      <tilted>0</tilted></_>
    <_>
      <rects>
        <_>
          5 11 8 6 -1.</_>
        <_>
          5 11 4 3 2.</_>
        <_>
          9 14 4 3 2.</_></rects>
      <tilted>0</tilted></_>
    <_>
      <rects>
        <_>
          7 0 13 24 -1.</_>
        <_>
          7 8 13 8 3.</_></rects>
      <tilted>0</tilted></_>
    <_>
      <rects>
        <_>
          7 2 12 2 -1.</_>
        <_>
          7 2 6 1 2.</_>
        <_>
          13 3 6 1 2.</_></rects>
      <tilted>0</tilted></_>
    <_>
      <rects>
        <_>
          7 11 17 12 -1.</_>
        <_>
          7 15 17 4 3.</_></rects>
      <tilted>0</tilted></_>
    <_>
      <rects>
        <_>
          8 0 7 3 -1.</_>
        <_>
          8 1 7 1 3.</_></rects>
      <tilted>0</tilted></_>
    <_>
      <rects>
        <_>
          8 9 10 15 -1.</_>
        <_>
          8 14 10 5 3.</_></rects>
      <tilted>0</tilted></_>
    <_>
      <rects>
        <_>
          8 10 9 4 -1.</_>
        <_>
          11 10 3 4 3.</_></rects>
      <tilted>0</tilted></_>
    <_>
      <rects>
        <_>
          8 11 10 8 -1.</_>
        <_>
          8 11 5 4 2.</_>
        <_>
          13 15 5 4 2.</_></rects>
      <tilted>0</tilted></_>
    <_>
      <rects>
        <_>
          9 9 4 15 -1.</_>
        <_>
          9 14 4 5 3.</_></rects>
      <tilted>0</tilted></_>
    <_>
      <rects>
        <_>
          9 10 6 12 -1.</_>
        <_>
          9 14 6 4 3.</_></rects>
      <tilted>0</tilted></_>
    <_>
      <rects>
        <_>
          10 6 8 18 -1.</_>
        <_>
          10 12 8 6 3.</_></rects>
      <tilted>0</tilted></_>
    <_>
      <rects>
        <_>
          10 12 6 6 -1.</_>
        <_>
          10 12 3 3 2.</_>
        <_>
          13 15 3 3 2.</_></rects>
      <tilted>0</tilted></_>
    <_>
      <rects>
        <_>
          10 13 9 2 -1.</_>
        <_>
          13 13 3 2 3.</_></rects>
      <tilted>0</tilted></_>
    <_>
      <rects>
        <_>
          11 0 2 2 -1.</_>
        <_>
          11 1 2 1 2.</_></rects>
      <tilted>0</tilted></_>
    <_>
      <rects>
        <_>
          11 0 7 16 -1.</_>
        <_>
          11 8 7 8 2.</_></rects>
      <tilted>0</tilted></_>
    <_>
      <rects>
        <_>
          13 5 10 14 -1.</_>
        <_>
          13 5 5 7 2.</_>
        <_>
          18 12 5 7 2.</_></rects>
      <tilted>0</tilted></_>
    <_>
      <rects>
        <_>
          14 2 5 12 -1.</_>
        <_>
          14 8 5 6 2.</_></rects>
      <tilted>0</tilted></_>
    <_>
      <rects>
        <_>
          15 20 6 4 -1.</_>
        <_>
          15 20 3 2 2.</_>
        <_>
          18 22 3 2 2.</_></rects>
      <tilted>0</tilted></_>
    <_>
      <rects>
        <_>
          16 1 8 14 -1.</_>
        <_>
          16 1 4 7 2.</_>
        <_>
          20 8 4 7 2.</_></rects>
      <tilted>0</tilted></_>
    <_>
      <rects>
        <_>
          16 2 8 14 -1.</_>
        <_>
          16 2 4 7 2.</_>
        <_>
          20 9 4 7 2.</_></rects>
      <tilted>0</tilted></_>
    <_>
      <rects>
        <_>
          16 11 6 12 -1.</_>
        <_>
          19 11 3 12 2.</_></rects>
      <tilted>0</tilted></_>
    <_>
      <rects>
        <_>
          17 0 6 2 -1.</_>
        <_>
          20 0 3 2 2.</_></rects>
      <tilted>0</tilted></_>
    <_>
      <rects>
        <_>
          22 19 2 5 -1.</_>
        <_>
          23 19 1 5 2.</_></rects>
      <tilted>0</tilted></_></features></cascade>
</opencv_storage>
