<?xml version="1.0"?>
<opencv_storage>
<stage4>
  <maxWeakCount>10</maxWeakCount>
  <stageThreshold>-3.3655750751495361e-01</stageThreshold>
  <weakClassifiers>
    <_>
      <internalNodes>
        0 -1 147153 2.6090466417372227e-03</internalNodes>
      <leafValues>
        -8.2459485530853271e-01 5.6998556852340698e-01</leafValues></_>
    <_>
      <internalNodes>
        0 -1 41880 3.9285302045755088e-04</internalNodes>
      <leafValues>
        3.0792090296745300e-01 -9.2428147792816162e-01</leafValues></_>
    <_>
      <internalNodes>
        0 -1 103773 -7.9190351068973541e-02</internalNodes>
      <leafValues>
        6.7198681831359863e-01 -4.4224247336387634e-01</leafValues></_>
    <_>
      <internalNodes>
        0 -1 10037 -5.7359103811904788e-04</internalNodes>
      <leafValues>
        -8.1459230184555054e-01 3.0943757295608521e-01</leafValues></_>
    <_>
      <internalNodes>
        0 -1 134918 -7.1858480572700500e-02</internalNodes>
      <leafValues>
        6.3853269815444946e-01 -4.2587429285049438e-01</leafValues></_>
    <_>
      <internalNodes>
        0 -1 130424 6.3646629452705383e-02</internalNodes>
      <leafValues>
        -4.0143102407455444e-01 6.7456519603729248e-01</leafValues></_>
    <_>
      <internalNodes>
        0 -1 114493 2.9996785451658070e-04</internalNodes>
      <leafValues>
        4.0388646721839905e-01 -8.2461112737655640e-01</leafValues></_>
    <_>
      <internalNodes>
        0 -1 162070 2.9951971373520792e-04</internalNodes>
      <leafValues>
        2.4884492158889771e-01 -7.5494593381881714e-01</leafValues></_>
    <_>
      <internalNodes>
        0 -1 5945 -1.9870226969942451e-04</internalNodes>
      <leafValues>
        -8.2476907968521118e-01 2.6581594347953796e-01</leafValues></_>
    <_>
      <internalNodes>
        0 -1 148464 4.9841322470456362e-04</internalNodes>
      <leafValues>
        2.2167934477329254e-01 -8.4339362382888794e-01</leafValues></_></weakClassifiers></stage4>
</opencv_storage>
