<?xml version="1.0"?>
<opencv_storage>
<stage2>
  <maxWeakCount>5</maxWeakCount>
  <stageThreshold>-8.7630611658096313e-01</stageThreshold>
  <weakClassifiers>
    <_>
      <internalNodes>
        0 -1 110493 -9.4343438744544983e-02</internalNodes>
      <leafValues>
        8.9396411180496216e-01 -5.5469423532485962e-01</leafValues></_>
    <_>
      <internalNodes>
        0 -1 112584 8.7122498080134392e-03</internalNodes>
      <leafValues>
        -3.7435027956962585e-01 8.4529060125350952e-01</leafValues></_>
    <_>
      <internalNodes>
        0 -1 52206 -4.8702135682106018e-02</internalNodes>
      <leafValues>
        8.8814473152160645e-01 -2.4166190624237061e-01</leafValues></_>
    <_>
      <internalNodes>
        0 -1 128241 -7.5746297836303711e-02</internalNodes>
      <leafValues>
        7.8288239240646362e-01 -2.8134295344352722e-01</leafValues></_>
    <_>
      <internalNodes>
        0 -1 129471 -4.4526522979140282e-03</internalNodes>
      <leafValues>
        5.7574325799942017e-01 -5.1342648267745972e-01</leafValues></_></weakClassifiers></stage2>
</opencv_storage>
